{"layers":[{"0":{},"1":{},"2":{},"3":{},"4":{}},{"0":{"bias":0.05034829114595544,"weights":{"0":0.1948529637159239,"1":0.015395972506803758,"2":-0.1180393608322945,"3":0.14607281281630874,"4":-0.03945202424435442}},"1":{"bias":0.10463575562633647,"weights":{"0":-0.040755782388657735,"1":0.15119000502000057,"2":-0.03810728342959822,"3":-0.1914281742513662,"4":0.0307566061666275}},"2":{"bias":0.19524368875605194,"weights":{"0":0.19829489548843166,"1":0.1398309008118942,"2":-0.10916599092304786,"3":0.11625453802045435,"4":0.16772472408552752}},"3":{"bias":0.0771403467849598,"weights":{"0":-0.19336320196096043,"1":-0.0202355633302218,"2":-0.015103190209724879,"3":-0.164206673364166,"4":-0.06367180005440165}},"4":{"bias":0.19169831161459178,"weights":{"0":0.14614111846522504,"1":0.03612134247907378,"2":-0.17328649147183084,"3":0.03261449636632151,"4":0.1729730650282025}},"5":{"bias":0.1844177626926815,"weights":{"0":-0.1345899620262045,"1":-0.12483300606278377,"2":-0.12120082382760282,"3":-0.17000877484758706,"4":0.05834909433719187}},"6":{"bias":0.13695581754629343,"weights":{"0":-0.01800620536074268,"1":-0.1882534872781225,"2":0.19104941755905927,"3":0.09316507756094501,"4":-0.10890248211996732}},"7":{"bias":0.07737911806684444,"weights":{"0":-0.09847182462728608,"1":-0.024195064905586556,"2":0.10241553134462297,"3":-0.038714974778500603,"4":-0.14603539992704523}},"8":{"bias":0.13608754105941115,"weights":{"0":0.05282335273688017,"1":-0.09117924385450384,"2":0.05492967490965383,"3":-0.11252185488269864,"4":0.10533933520927778}},"9":{"bias":0.00748082112397119,"weights":{"0":-0.1873401647590939,"1":-0.13714401540243212,"2":-0.1133231714510088,"3":-0.18751750890802113,"4":-0.06324708715270105}}},{"0":{"bias":0.08237927724359607,"weights":{"0":-0.033363021515805356,"1":0.052919060173416584,"2":-0.11996168964914909,"3":-0.18667887081038362,"4":0.004528540332103003,"5":-0.012261942729023161,"6":0.06298735272398275,"7":-0.15603394654261424,"8":-0.018027823610295677,"9":-0.05377699388458335}},"1":{"bias":-0.08462518520677415,"weights":{"0":0.027234221900223995,"1":0.014317065697813821,"2":-0.08544105359801707,"3":0.0908209373335114,"4":-0.0913341304156982,"5":-0.11204622135379615,"6":-0.12614252551053887,"7":-0.12945393273448755,"8":-0.09897165794717872,"9":0.16713291161258576}},"2":{"bias":-0.129347129926895,"weights":{"0":-0.0164365212742706,"1":0.10705970168354544,"2":-0.19346366040100335,"3":0.07938930364811163,"4":0.03467191695057705,"5":-0.00942612437744571,"6":0.03687326445114348,"7":0.14004580735137803,"8":-0.16832735164288926,"9":-0.12448540063489287}},"3":{"bias":0.06423480352794095,"weights":{"0":-0.1643964890715762,"1":0.1456808574221085,"2":-0.08072003660713337,"3":-0.19605424301962573,"4":0.1755332781174746,"5":0.19688736413831726,"6":0.07471345956745397,"7":-0.12444754686672052,"8":0.05175166075599162,"9":-0.11275885004705666}},"4":{"bias":0.016558832990154877,"weights":{"0":0.19063901885621737,"1":0.11583077882571327,"2":-0.09183828803554459,"3":-0.07635131655895078,"4":0.08026062153231181,"5":0.04552076745365531,"6":-0.0006371989597602343,"7":0.16895485940578864,"8":-0.10374324258174625,"9":-0.156375363767912}},"5":{"bias":0.005543412356491422,"weights":{"0":-0.11719351899020347,"1":0.0016699707468781214,"2":0.16763696006775,"3":-0.03402659944633358,"4":0.023146854441208637,"5":0.1222266794342248,"6":-0.00530441614926881,"7":-0.08648235900405589,"8":-0.19769685965433206,"9":-0.03468132793403609}},"6":{"bias":-0.11227917900439836,"weights":{"0":-0.03987668370691427,"1":-0.1817880901840238,"2":0.06396644567280875,"3":-0.1425704949237829,"4":-0.19878562665154137,"5":0.1386510604898016,"6":-0.04761780431633264,"7":-0.01871238422543865,"8":-0.02714061200399736,"9":0.07367480094048666}},"7":{"bias":-0.11839648735923533,"weights":{"0":-0.1605627644922685,"1":0.13385088790396132,"2":0.010793024625071397,"3":-0.03528532613480256,"4":0.1223790758471042,"5":0.007045886474195385,"6":0.02336471557924726,"7":0.06834135383512498,"8":-0.09039609880148121,"9":0.09649315350714026}},"8":{"bias":0.008856326923639612,"weights":{"0":0.07156824190847302,"1":-0.1096373471555356,"2":-0.14446373163626414,"3":0.1765689244852297,"4":-0.09077708400824956,"5":-0.14593964641198168,"6":0.12267595132157463,"7":-0.19887544364257032,"8":-0.19925897714056692,"9":0.11202054038332572}},"9":{"bias":-0.03954702537123916,"weights":{"0":-0.04560850984666752,"1":0.08948023262309215,"2":0.10344052115242927,"3":0.02007901121353763,"4":0.10065952832341962,"5":0.14066500300637796,"6":-0.05403952157377959,"7":0.0726952272126346,"8":0.04868171305658617,"9":0.119915367123483}},"10":{"bias":0.0399406126767784,"weights":{"0":-0.08192735659996164,"1":-0.17098982852791872,"2":-0.07275099924342111,"3":-0.04547815234714679,"4":0.15763937640747475,"5":-0.1607045137617793,"6":0.17743560284242899,"7":-0.17038369030849163,"8":0.08053670532252673,"9":-0.031804534043830913}},"11":{"bias":0.02127091758439069,"weights":{"0":0.18518221525131268,"1":-0.188042959428223,"2":-0.1519664722174061,"3":0.14706987618951636,"4":0.034461054254240134,"5":0.07038791601980905,"6":-0.1717753442351602,"7":0.1732637351082433,"8":-0.01824556200407819,"9":-0.061190277379641445}},"12":{"bias":0.08370720329556275,"weights":{"0":0.09108946809486611,"1":0.08374352571431878,"2":-0.11839895952533501,"3":-0.1644689208647747,"4":-0.14626658121632807,"5":-0.07156845468611883,"6":-0.15732698058455097,"7":0.0835440085817741,"8":0.1459292744340327,"9":0.06441570457656651}},"13":{"bias":0.1524519946870114,"weights":{"0":0.050100959445142944,"1":-0.1815265413781403,"2":0.002896938454761475,"3":0.11209356187973203,"4":-0.18725324224212514,"5":-0.09426338267088483,"6":-0.1470837140304964,"7":-0.09936531697476116,"8":-0.05378723591802436,"9":0.16760140016432182}},"14":{"bias":-0.19408401802678163,"weights":{"0":0.09628095735327927,"1":-0.05404855955499725,"2":0.06313847052353956,"3":0.020317386142394884,"4":-0.09372066036886859,"5":-0.16483462266505913,"6":-0.1432433183807111,"7":0.005853124678579273,"8":0.11689808979873058,"9":-0.025503143983932976}},"15":{"bias":0.007934029114863276,"weights":{"0":0.05827743086607478,"1":-0.12819041914574525,"2":-0.14749403137194445,"3":0.15116849834324372,"4":-0.1958668388963753,"5":-0.059237551507210516,"6":0.022154467326487147,"7":0.18686880379564438,"8":-0.1330584801119341,"9":0.048684131530838934}},"16":{"bias":-0.18811048403942196,"weights":{"0":0.16601602413921887,"1":-0.1387391730794732,"2":0.1897875527805272,"3":-0.04170175892127734,"4":0.1681568407870365,"5":-0.08805882401619985,"6":-0.053630303990890436,"7":-0.16013120646609205,"8":0.1360753921091267,"9":0.17052185399811082}},"17":{"bias":-0.16682791424109672,"weights":{"0":0.04890829816476056,"1":-0.1503630219786623,"2":-0.02659484510294819,"3":-0.13571107218264905,"4":0.06890783062787854,"5":-0.0660580972903785,"6":0.12434722874755114,"7":-0.11363359099448883,"8":-0.1636415033126674,"9":-0.12147863485430745}},"18":{"bias":-0.17241763703728258,"weights":{"0":0.1689684025352007,"1":0.1266262983896451,"2":0.012523958043571159,"3":0.10752897515517257,"4":0.022082202280509677,"5":-0.17383948267774565,"6":0.09494149726234048,"7":-0.09693432449170987,"8":-0.010289963632244674,"9":-0.037981413024858496}},"19":{"bias":-0.050126998620446596,"weights":{"0":0.061873349627775805,"1":-0.021349366003192517,"2":0.14600094456338553,"3":-0.16722992405195244,"4":-0.10381476929491998,"5":-0.18544581002287833,"6":-0.1645578899484709,"7":-0.10787202987779072,"8":0.1294516030856501,"9":0.14415607577558137}}},{"0":{"bias":0.15886859551266447,"weights":{"0":-0.016910474554141606,"1":0.1424952176195328,"2":0.1484325112330481,"3":0.07603468809261725,"4":0.1232066297561758,"5":0.12988604335689144,"6":0.12962461393154506,"7":-0.09109571650177428,"8":-0.02500192892577737,"9":0.025076207410813064,"10":-0.011151609961633268,"11":-0.018461295316528393,"12":-0.04649510855507181,"13":0.09464434465585563,"14":0.15353506951627294,"15":-0.14307479062569356,"16":-0.16465878710833567,"17":-0.13594040503757887,"18":0.10616377633462772,"19":0.17022072962152526}},"1":{"bias":0.13806863441739317,"weights":{"0":-0.10174330749309254,"1":-0.16232304720420476,"2":-0.04467168605348303,"3":-0.09264341691517254,"4":-0.07202497783632962,"5":0.09454835225337262,"6":0.0556626993484766,"7":-0.13709399270254594,"8":-0.11080165849283817,"9":0.11214160332372172,"10":-0.11251051659285354,"11":-0.07736963497217604,"12":-0.16707887911683836,"13":0.19085070661688328,"14":0.18167042744413275,"15":-0.09931877605103798,"16":0.12498815390214546,"17":0.18844432397614733,"18":0.0345622956601165,"19":-0.06511443113888532}},"2":{"bias":-0.10712560353966537,"weights":{"0":0.04683987869921903,"1":-0.15792456910876382,"2":-0.19318999460372188,"3":-0.060345031175671686,"4":-0.12136657701124176,"5":-0.01846499800295846,"6":0.1743671328603244,"7":0.12412556958696373,"8":0.14029086863322987,"9":0.08293348409286894,"10":-0.0397769321291127,"11":-0.1954945724669413,"12":-0.12406658229532763,"13":0.16261146151334022,"14":0.01767509234128497,"15":-0.13160960741816738,"16":0.05364820962975637,"17":-0.1303705410619152,"18":-0.03840084987324557,"19":0.15858479378649906}},"3":{"bias":-0.07065559887928663,"weights":{"0":0.16433621423087824,"1":0.0043475573613514385,"2":0.021043193974791822,"3":-0.15939071764021165,"4":-0.07037998463147774,"5":-0.021174675658476427,"6":-0.0030124417590436862,"7":0.09680192123504507,"8":-0.16396973254955097,"9":0.0244917025685928,"10":0.19557645269205653,"11":-0.03757975839277394,"12":0.1552665954574769,"13":-0.10137427081933444,"14":0.18420921754171823,"15":-0.014464927520041734,"16":0.027257985517843208,"17":-0.05362932289912646,"18":0.06384071936339783,"19":0.07671146512737348}},"4":{"bias":-0.0377343346292232,"weights":{"0":-0.1781530961675057,"1":0.06721487537616842,"2":0.14910677034816966,"3":-0.026089899740068746,"4":0.19155847441005358,"5":0.03634598381630194,"6":-0.1698677420485989,"7":-0.1742499707073126,"8":0.03257528163849568,"9":0.11799092761838488,"10":0.1869171274411377,"11":0.1263749189367829,"12":-0.09731986631761665,"13":0.14860491480606636,"14":0.05537711936387573,"15":-0.1723818751010127,"16":0.16834354480844488,"17":-0.08365629918329485,"18":-0.0655375375803138,"19":-0.014017204657283351}},"5":{"bias":0.15789176201330624,"weights":{"0":0.16639956357683994,"1":0.14313200973026305,"2":-0.13149903074658048,"3":-0.1777735431950436,"4":0.01675584569836397,"5":0.11950467924213205,"6":-0.026378514063501477,"7":-0.023510408075015407,"8":0.17850744431685545,"9":-0.08071022206125018,"10":0.0016631275032165547,"11":0.16599889397318995,"12":0.1202762880121168,"13":-0.09278791341025579,"14":0.08228835071293909,"15":-0.09883418705330364,"16":-0.012848728446049708,"17":0.12017119017045531,"18":0.04790568132783595,"19":0.1706991093702478}},"6":{"bias":0.01897577780099727,"weights":{"0":-0.08251129866402492,"1":0.1265599341726339,"2":-0.14034428953928774,"3":0.009243357325871298,"4":0.038181887918240405,"5":0.05512524318962846,"6":0.1302446139687412,"7":0.16521731129541808,"8":-0.1648159092093443,"9":-0.1812359328616257,"10":-0.050823525962620325,"11":-0.14884632470545797,"12":-0.020373485939663656,"13":-0.09257492106644993,"14":-0.07561192470463207,"15":0.08028698832942625,"16":0.14510475048750887,"17":-0.17417354919703742,"18":-0.1613316896391105,"19":0.03951587263349109}},"7":{"bias":0.04605929558813305,"weights":{"0":-0.09889463061313615,"1":-0.12132368878327855,"2":-0.1795903121364227,"3":-0.16918635457179715,"4":-0.19965949984923795,"5":0.18109093732001452,"6":0.1606316456852118,"7":-0.052596581911664664,"8":-0.18158506438976926,"9":-0.12479440867291505,"10":-0.16547847486741254,"11":-0.09223904502441593,"12":-0.10874589900434412,"13":0.18834070314706358,"14":-0.0699903065810252,"15":0.11518439796202881,"16":-0.03270692137201775,"17":0.008893461039349942,"18":0.15560731478864467,"19":0.02798403294140223}},"8":{"bias":0.08372032290021952,"weights":{"0":0.1304610440471343,"1":-0.1546263977901631,"2":0.11826685320163434,"3":0.15201874340339003,"4":-0.1605169557178143,"5":0.10915556250378487,"6":0.0993339281005781,"7":-0.011763810508584053,"8":-0.12219071928388135,"9":-0.024198692458299094,"10":0.033150200399693894,"11":0.028340519441099644,"12":-0.16635763241056864,"13":0.18052933911116886,"14":-0.1612234373171482,"15":-0.03631919663790567,"16":0.03750650945415914,"17":0.1394852923536251,"18":0.104081957370593,"19":0.165990453137849}},"9":{"bias":0.03867050360959076,"weights":{"0":0.061235052414508426,"1":0.11388614999534342,"2":0.14826908212569925,"3":0.10784588044950191,"4":0.13359915357076618,"5":-0.1503351668898102,"6":0.0068742682662918195,"7":-0.00865939527502529,"8":0.19115482897641156,"9":0.15192513731762047,"10":0.012330972627074365,"11":0.058185509619633695,"12":0.16824554661504074,"13":0.10858691574118966,"14":0.039445902171269254,"15":0.1691717409947571,"16":-0.1093529864825894,"17":0.06994559221945551,"18":0.08929973964831488,"19":-0.06472101409992441}},"10":{"bias":-0.009364973313141062,"weights":{"0":0.07713447597491138,"1":-0.07516287468305126,"2":0.039372275976399924,"3":-0.13395277881917836,"4":0.14365326931174202,"5":-0.12985686320248271,"6":-0.06017953815625113,"7":-0.09052036572609408,"8":0.06526004780826652,"9":-0.07312563932544476,"10":0.02740987775637599,"11":-0.04478712176039791,"12":0.05009682136099612,"13":-0.0764432349606248,"14":-0.11330896179412364,"15":-0.17065641733602596,"16":0.1363072037293231,"17":0.17168839602327535,"18":-0.045006993504573,"19":-0.15969538430145436}},"11":{"bias":0.1154388636583483,"weights":{"0":0.17542676248281688,"1":-0.19727258457221813,"2":-0.13615128315833877,"3":-0.08023432616643295,"4":-0.06548802488188246,"5":0.021654241370111647,"6":0.02099100051087755,"7":-0.09575080296474711,"8":0.08779356278054903,"9":-0.10463200880978386,"10":-0.16305011636176733,"11":-0.08828592272732394,"12":-0.01503720205227462,"13":0.09756174191318456,"14":0.1657295556977719,"15":0.039153660187779334,"16":-0.07349751863084317,"17":0.15304439462862998,"18":-0.14522210165585128,"19":-0.1417255130179258}},"12":{"bias":-0.10929633787629298,"weights":{"0":0.0341721439651981,"1":-0.2008342382158694,"2":0.1851212276818027,"3":-0.1948086877557396,"4":-0.13895166261717068,"5":-0.06051985373398576,"6":-0.10787360585502723,"7":-0.13840901046901755,"8":0.11880105692001873,"9":0.06467224801010228,"10":-0.08756419134055611,"11":0.16827044581773676,"12":0.0672002784122652,"13":-0.18869056336519888,"14":0.19742921843952033,"15":0.05744530228997966,"16":-0.027442037317472245,"17":0.13621238755699117,"18":0.138710263438539,"19":0.026713569757721763}},"13":{"bias":-0.11452924726155099,"weights":{"0":0.1847676103403476,"1":0.0147718061639639,"2":0.12341102071251474,"3":-0.0350063585593817,"4":0.12348885456747472,"5":0.014113031615413418,"6":0.14281258186975715,"7":-0.05034486364436143,"8":-0.04943857904775437,"9":-0.07682357814834687,"10":0.0018371331818865819,"11":-0.12895585379341679,"12":-0.044686246860671026,"13":-0.11834994124544597,"14":0.08030692685439766,"15":0.022896488374532814,"16":-0.1472983023733684,"17":0.17738331076289704,"18":-0.04284935416105173,"19":-0.06346010118778152}},"14":{"bias":0.10749023537458573,"weights":{"0":-0.14847763651899326,"1":0.19926073152867524,"2":0.023341762149427046,"3":0.031637670057273706,"4":-0.059160097087177455,"5":0.02273388435969549,"6":-0.005246963677476018,"7":-0.13857389150822658,"8":0.07231459074415111,"9":0.09074698481187389,"10":-0.09147615954416981,"11":0.13121450473075072,"12":-0.024011497052796354,"13":-0.11400227264995072,"14":0.1524053595990009,"15":-0.038035697349028195,"16":0.19090970012906752,"17":0.15489318809675573,"18":-0.1431626529125845,"19":0.1621346878386101}},"15":{"bias":-0.042157065112544766,"weights":{"0":0.004955707675234048,"1":0.000955885955426558,"2":-0.16013623676163705,"3":0.0025862423049209517,"4":-0.02104124360580388,"5":0.08313491522706529,"6":-0.05138159800682635,"7":0.175540846947849,"8":0.1842564817688915,"9":0.06666085247026611,"10":0.0871584751413676,"11":0.18332991421483488,"12":-0.09645122926256315,"13":0.031786345055367225,"14":-0.12628198823228015,"15":-0.17719571272808343,"16":-0.10147903044311482,"17":-0.029155407258313983,"18":0.19526580013610878,"19":-0.018811719293919938}},"16":{"bias":0.13075712449301594,"weights":{"0":-0.023382156430297653,"1":-0.05017726070431215,"2":0.11235560805178836,"3":-0.1636225640793978,"4":-0.11886127519923309,"5":-0.08376433524972993,"6":0.15703483492460066,"7":-0.02954101594982398,"8":-0.08653973012624858,"9":0.06112097028137224,"10":-0.0385195316274704,"11":-0.13746650848850814,"12":-0.1523567953463365,"13":-0.18539068179025536,"14":-0.00016695719821095524,"15":0.07643117756595352,"16":0.1503506784662128,"17":-0.16196786070167535,"18":-0.07707889345352319,"19":0.08169999125290048}},"17":{"bias":0.01860622183284455,"weights":{"0":-0.06286132243953316,"1":-0.1931502072478599,"2":-0.1998794498018577,"3":0.10564655430320909,"4":-0.07266733407582289,"5":0.004380773976274581,"6":-0.12853336838516288,"7":0.07725209223603667,"8":-0.1221010588234864,"9":-0.0356112442271417,"10":-0.15179895698273704,"11":0.18466064001688343,"12":-0.03785543248091566,"13":0.017348891548984197,"14":0.01855954919009632,"15":0.014965975439428198,"16":0.049210065385547196,"17":-0.15796962119467717,"18":0.10716242109604844,"19":0.16665710622132546}},"18":{"bias":-0.019918844989948524,"weights":{"0":-0.0847838358528008,"1":0.0733147353767081,"2":0.1933132780180793,"3":-0.11111840623737847,"4":0.014941933420013084,"5":0.12589159019712487,"6":0.1467473051614643,"7":-0.01741210294211942,"8":-0.006850685811272171,"9":0.06469642945314284,"10":-0.1980399060943498,"11":-0.13858319369645533,"12":-0.053392757371494674,"13":0.1494316082337049,"14":-0.09634857250965506,"15":-0.15400415842570045,"16":0.002028288229227525,"17":-0.18385971233546716,"18":-0.09719221179791188,"19":-0.14718596469181447}},"19":{"bias":0.01657932528494141,"weights":{"0":-0.1401345408421966,"1":-0.13984707170245067,"2":-0.19356725945340705,"3":0.023919723110543543,"4":0.10137061875672679,"5":-0.18209723618931303,"6":-0.10585844727518126,"7":-0.16251294328301205,"8":0.1397641389705915,"9":-0.11490201389225202,"10":-0.11908718810650469,"11":0.17638518568245926,"12":-0.1338897917799208,"13":0.12184224386912379,"14":0.033308851664423204,"15":0.15517084998826028,"16":0.18783573443173474,"17":0.04343348411690206,"18":0.002962846465112015,"19":-0.18379170216723298}},"20":{"bias":0.08335457225722817,"weights":{"0":0.0762391600049174,"1":-0.16590207078044647,"2":-0.17574914515096318,"3":0.1674560068548311,"4":0.1047639601016714,"5":-0.06982412959608057,"6":0.1432645096667595,"7":0.133812322039631,"8":0.022440416292820068,"9":-0.1379168049409406,"10":0.18783713415705405,"11":0.053537440496963386,"12":-0.12799250238690296,"13":-0.11780190078069627,"14":-0.11566337801608975,"15":-0.009133299742349534,"16":0.07814489612184894,"17":-0.0569758752949284,"18":-0.08095712072788579,"19":-0.09986622164241934}},"21":{"bias":-0.17546725892152307,"weights":{"0":-0.1479901202651399,"1":-0.13271098986480276,"2":-0.1674951955244757,"3":-0.014957460175621003,"4":-0.15252118981854554,"5":-0.15914210010019192,"6":0.04035054249321137,"7":-0.06984929797693747,"8":-0.05865684885931109,"9":0.025652572346359977,"10":0.13935999114573153,"11":0.10732888042171841,"12":0.05769507025629111,"13":0.0594560517108596,"14":0.11215021415071265,"15":-0.1822263116200692,"16":0.04892328131691724,"17":-0.11360334870039669,"18":0.049897518955479975,"19":-0.18053879994143865}},"22":{"bias":-0.04530695409721013,"weights":{"0":0.022287961533565815,"1":0.04566757604490864,"2":-0.07801931578805162,"3":0.10712882723324317,"4":-0.12830062779318002,"5":-0.07275588539011323,"6":-0.04388735575761236,"7":0.07561033631251188,"8":-0.0948118688967545,"9":-0.19007493025909927,"10":0.10104703447031999,"11":0.18724731683233198,"12":-0.13275474719005143,"13":-0.07490319794052112,"14":-0.18128870903345579,"15":-0.14800241723498592,"16":0.056990397433285794,"17":0.16080002331612794,"18":-0.14081043225896886,"19":0.16728654276207439}},"23":{"bias":-0.19472655954288948,"weights":{"0":0.027751923120325258,"1":-0.13713531130462736,"2":0.15883466813530314,"3":0.1746395655542957,"4":0.10918453387352699,"5":-0.15826467515397094,"6":-0.02350109792960369,"7":-0.15391713501317278,"8":0.0823901555123333,"9":0.09152148715040291,"10":0.006997922129555276,"11":0.013838177883878549,"12":0.1133403937796815,"13":-0.05280905692746707,"14":-0.12342587047871914,"15":-0.020262195585735637,"16":0.04431486976110128,"17":-0.03503295774217935,"18":0.0921429181560732,"19":0.006447778712994603}},"24":{"bias":-0.19017318688510199,"weights":{"0":-0.07133479263208714,"1":-0.06398785580163582,"2":-0.17475934492550704,"3":-0.058304545411966266,"4":0.13622573964330545,"5":0.1682933587415081,"6":0.029148710359377505,"7":0.10508778827349306,"8":-0.16065013598904673,"9":-0.1745169618914054,"10":0.20147322172301227,"11":-0.13972854221620856,"12":-0.16953908805783013,"13":-0.0019815951648216655,"14":-0.1615374705556554,"15":-0.08591708202141221,"16":0.10101355802339765,"17":-0.11519318985850692,"18":0.12009356400528932,"19":-0.07946242253848422}},"25":{"bias":0.049682605118261,"weights":{"0":-0.11220920789767239,"1":-0.01856038912335927,"2":-0.019205479668252076,"3":-0.10900735331706486,"4":0.1737869261332385,"5":-0.08554546626617424,"6":-0.08953670153727884,"7":0.06378110456924116,"8":-0.02303444099634977,"9":0.02328299137457275,"10":0.18454732830737583,"11":-0.059618592445254685,"12":0.2020787131815641,"13":-0.09378734197242222,"14":0.1940326739697461,"15":0.1170206431962566,"16":0.05176140734831214,"17":0.19368527985709738,"18":0.18172791513478562,"19":0.08338816654551344}},"26":{"bias":-0.1739997434988647,"weights":{"0":0.09199396774100797,"1":0.1494418779307626,"2":-0.1386742538797192,"3":-0.11036724514700907,"4":0.13509866667651335,"5":-0.011168769413034683,"6":-0.1454744905412702,"7":0.16428101879392598,"8":-0.014802130736784226,"9":0.010781861662576006,"10":-0.07701881212064841,"11":-0.05589914371693216,"12":0.15874419609489374,"13":0.17100035644024483,"14":0.03699694159203456,"15":0.12723854410944346,"16":0.17858314432768954,"17":-0.08721997511109505,"18":0.11533356098295164,"19":-0.056040087041293755}},"27":{"bias":0.14137412278765937,"weights":{"0":-0.19631586148202634,"1":-0.07977147198720062,"2":0.11180966605232559,"3":0.13570073716335893,"4":-0.0013672070421360183,"5":-0.004250962008351634,"6":-0.09459433273935557,"7":0.0957002143845199,"8":-0.021059556898549662,"9":-0.18092624599295443,"10":0.16487797707776888,"11":-0.03509004146675128,"12":0.03457287309899079,"13":0.16858774182223557,"14":-0.11195200860090257,"15":0.02212871291206118,"16":0.05385190664111615,"17":0.1939866575779576,"18":-0.10377537588636991,"19":0.06321125086879421}},"28":{"bias":-0.17373603069614943,"weights":{"0":0.04527795243296636,"1":0.07487546152733837,"2":-0.11354157036352804,"3":0.04770495008854209,"4":0.20021115036778178,"5":-0.07816563306208626,"6":-0.01490623904227568,"7":0.07203904322485546,"8":0.1992115338970103,"9":0.18285290195234516,"10":0.005459101475577528,"11":-0.19567484551094974,"12":0.010366138409187441,"13":-0.04727217470790852,"14":-0.14678794567372577,"15":-0.1811044155382508,"16":-0.1657312287414553,"17":0.10037322745338169,"18":0.04803534707182041,"19":0.05598296016350941}},"29":{"bias":0.1257314165328479,"weights":{"0":0.08933999913388857,"1":0.1445013574361671,"2":-0.06517693007010772,"3":0.025324477899408497,"4":-0.1328315549357823,"5":-0.1976310018948575,"6":-0.09257603982826171,"7":-0.07343859656368656,"8":0.01683330295595288,"9":0.06770511232134432,"10":0.10336042161506957,"11":0.059217514673097646,"12":0.16780543091167757,"13":-0.025306195884887358,"14":-0.1368731165500099,"15":0.13958742692727533,"16":0.0421285182786778,"17":0.14674910912859981,"18":0.13165328807201596,"19":0.09854166955599358}}},{"0":{"bias":-0.21517492411745553,"weights":{"0":0.0781345793514241,"1":-0.030665075927943458,"2":-0.24486744347601677,"3":-0.0869100653061828,"4":-0.0431418572099158,"5":-0.11503485782664621,"6":-0.058403499029318885,"7":-0.008090310259020354,"8":0.10401111075957292,"9":0.08185237589067948,"10":-0.24089644889024947,"11":0.0646262779080034,"12":0.07309097942789997,"13":-0.22415035099150196,"14":-0.21856249380332973,"15":0.010055377112963088,"16":-0.08014848274045848,"17":0.016724360704987822,"18":-0.09168666092017184,"19":-0.12306723807027917,"20":0.05875084617901985,"21":-0.21346050280868212,"22":-0.07440427924854859,"23":-0.08278538381107646,"24":-0.21991975681783366,"25":-0.27187791133360356,"26":-0.2650757128171438,"27":0.09328178033586519,"28":-0.17549984472518176,"29":-0.15080443639079577}}}],"outputLookup":false,"inputLookup":false}